Language model created by QuickLM on Sun May  1 22:21:16 EDT 2011
Copyright (c) 1996-2000
Carnegie Mellon University and Alexander I. Rudnicky

This model based on a corpus of 6 sentences and 16 words
The (fixed) discount mass is 0.5

\data\
ngram 1=16
ngram 2=21
ngram 3=18

\1-grams:
-1.0142 </s> -0.3010
-1.0142 <s> -0.2568
-1.7924 ARE -0.2940
-1.7924 DAY -0.2795
-1.7924 GOODBYE -0.2568
-1.7924 HELLO -0.2940
-1.7924 HOW -0.2940
-1.3153 IS -0.2795
-1.4914 IT -0.2568
-1.7924 NAME -0.2568
-1.7924 PI -0.2940
-1.7924 ROBOT -0.2568
-1.7924 TIME -0.2795
-1.3153 WHAT -0.2645
-1.7924 YOU -0.2568
-1.7924 YOUR -0.2940

\2-grams:
-1.0792 <s> GOODBYE 0.0000
-1.0792 <s> HELLO 0.0000
-1.0792 <s> HOW 0.0000
-0.6021 <s> WHAT 0.0000
-0.3010 ARE YOU 0.0000
-0.3010 DAY IS -0.1249
-0.3010 GOODBYE </s> -0.3010
-0.3010 HELLO PI 0.0000
-0.3010 HOW ARE 0.0000
-0.4771 IS IT 0.0000
-0.7782 IS YOUR 0.0000
-0.3010 IT </s> -0.3010
-0.3010 NAME </s> -0.3010
-0.3010 PI ROBOT 0.0000
-0.3010 ROBOT </s> -0.3010
-0.3010 TIME IS -0.1249
-0.7782 WHAT DAY 0.0000
-0.7782 WHAT IS -0.2218
-0.7782 WHAT TIME 0.0000
-0.3010 YOU </s> -0.3010
-0.3010 YOUR NAME 0.0000

\3-grams:
-0.3010 <s> GOODBYE </s>
-0.3010 <s> HELLO PI
-0.3010 <s> HOW ARE
-0.7782 <s> WHAT DAY
-0.7782 <s> WHAT IS
-0.7782 <s> WHAT TIME
-0.3010 ARE YOU </s>
-0.3010 DAY IS IT
-0.3010 HELLO PI ROBOT
-0.3010 HOW ARE YOU
-0.3010 IS IT </s>
-0.3010 IS YOUR NAME
-0.3010 PI ROBOT </s>
-0.3010 TIME IS IT
-0.3010 WHAT DAY IS
-0.3010 WHAT IS YOUR
-0.3010 WHAT TIME IS
-0.3010 YOUR NAME </s>

\end\
