Language model created by QuickLM on Sat May  7 21:22:41 EDT 2011
Copyright (c) 1996-2010 Carnegie Mellon University and Alexander I. Rudnicky

The model is in standard ARPA format, designed by Doug Paul while he was at MITRE.

The code that was used to produce this language model is available in Open Source.
Please visit http://www.speech.cs.cmu.edu/tools/ for more information

The (fixed) discount mass is 0.5. The backoffs are computed using the ratio method.
This model based on a corpus of 25 sentences and 19 words

\data\
ngram 1=19
ngram 2=34
ngram 3=17

\1-grams:
-0.7782 </s> -0.3010
-0.7782 <s> -0.2218
-2.1761 ABORT -0.2218
-2.1761 BACKWARD -0.2218
-1.6990 COME -0.2218
-2.1761 DOWN -0.2218
-2.1761 FASTER -0.2218
-2.1761 FORWARD -0.2218
-1.6990 GO -0.2218
-2.1761 HALT -0.2218
-2.1761 LEFT -0.2218
-1.6990 MOVE -0.2218
-2.1761 RIGHT -0.2218
-2.1761 SLOW -0.2218
-2.1761 SLOWER -0.2218
-2.1761 SPEED -0.2218
-2.1761 STOP -0.2218
-1.6990 TURN -0.2218
-2.1761 UP -0.2218

\2-grams:
-1.6990 <s> ABORT 0.0000
-1.6990 <s> BACKWARD 0.0000
-1.2218 <s> COME 0.0000
-1.6990 <s> DOWN 0.0000
-1.6990 <s> FASTER 0.0000
-1.6990 <s> FORWARD 0.0000
-1.2218 <s> GO 0.0000
-1.6990 <s> HALT 0.0000
-1.6990 <s> LEFT 0.0000
-1.2218 <s> MOVE 0.0000
-1.6990 <s> RIGHT 0.0000
-1.6990 <s> SLOW 0.0000
-1.6990 <s> SLOWER 0.0000
-1.6990 <s> SPEED 0.0000
-1.6990 <s> STOP 0.0000
-1.2218 <s> TURN 0.0000
-1.6990 <s> UP 0.0000
-0.3010 ABORT </s> -0.3010
-0.3010 BACKWARD </s> -0.3010
-0.3010 COME </s> -0.3010
-0.3010 DOWN </s> -0.3010
-0.3010 FASTER </s> -0.3010
-0.3010 FORWARD </s> -0.3010
-0.3010 GO </s> -0.3010
-0.3010 HALT </s> -0.3010
-0.3010 LEFT </s> -0.3010
-0.3010 MOVE </s> -0.3010
-0.3010 RIGHT </s> -0.3010
-0.3010 SLOW </s> -0.3010
-0.3010 SLOWER </s> -0.3010
-0.3010 SPEED </s> -0.3010
-0.3010 STOP </s> -0.3010
-0.3010 TURN </s> -0.3010
-0.3010 UP </s> -0.3010

\3-grams:
-0.3010 <s> ABORT </s>
-0.3010 <s> BACKWARD </s>
-0.3010 <s> COME </s>
-0.3010 <s> DOWN </s>
-0.3010 <s> FASTER </s>
-0.3010 <s> FORWARD </s>
-0.3010 <s> GO </s>
-0.3010 <s> HALT </s>
-0.3010 <s> LEFT </s>
-0.3010 <s> MOVE </s>
-0.3010 <s> RIGHT </s>
-0.3010 <s> SLOW </s>
-0.3010 <s> SLOWER </s>
-0.3010 <s> SPEED </s>
-0.3010 <s> STOP </s>
-0.3010 <s> TURN </s>
-0.3010 <s> UP </s>

\end\
