Language model created by QuickLM on Sat May  7 22:42:05 EDT 2011
Copyright (c) 1996-2010 Carnegie Mellon University and Alexander I. Rudnicky

The model is in standard ARPA format, designed by Doug Paul while he was at MITRE.

The code that was used to produce this language model is available in Open Source.
Please visit http://www.speech.cs.cmu.edu/tools/ for more information

The (fixed) discount mass is 0.5. The backoffs are computed using the ratio method.
This model based on a corpus of 30 sentences and 27 words

\data\
ngram 1=27
ngram 2=56
ngram 3=55

\1-grams:
-0.8846 </s> -0.3010
-0.8846 <s> -0.2338
-2.3617 ABORT -0.2403
-2.0607 BACK -0.2403
-1.8846 BACKWARD -0.2403
-1.7597 COME -0.2697
-2.3617 CONTINUE -0.2972
-2.3617 DOWN -0.2403
-2.3617 FASTER -0.2403
-1.8846 FORWARD -0.2403
-2.3617 FULL -0.2934
-1.6628 GO -0.2656
-2.3617 HALF -0.2934
-2.3617 HALT -0.2403
-1.6628 LEFT -0.2403
-1.6628 MOVE -0.2656
-2.3617 PAUSE -0.2972
-2.3617 QUARTER -0.2934
-1.6628 RIGHT -0.2403
-2.0607 ROTATE -0.2817
-2.3617 SLOW -0.2991
-2.3617 SLOWER -0.2403
-2.0607 SPEECH -0.2403
-1.7597 SPEED -0.2382
-2.3617 STOP -0.2403
-2.0607 TURN -0.2817
-2.3617 UP -0.2403

\2-grams:
-1.7782 <s> ABORT 0.0000
-1.1761 <s> COME 0.0000
-1.7782 <s> CONTINUE 0.0000
-1.7782 <s> FASTER 0.0000
-1.7782 <s> FULL 0.0000
-1.0792 <s> GO 0.0000
-1.7782 <s> HALF 0.0000
-1.7782 <s> HALT 0.0000
-1.0792 <s> MOVE 0.0000
-1.7782 <s> PAUSE 0.0000
-1.7782 <s> QUARTER 0.0000
-1.4771 <s> ROTATE 0.0000
-1.7782 <s> SLOW 0.0000
-1.7782 <s> SLOWER 0.0000
-1.7782 <s> SPEED -0.2430
-1.7782 <s> STOP 0.0000
-1.4771 <s> TURN 0.0000
-0.3010 ABORT </s> -0.3010
-0.3010 BACK </s> -0.3010
-0.3010 BACKWARD </s> -0.3010
-0.9031 COME BACKWARD 0.0000
-0.9031 COME FORWARD 0.0000
-0.9031 COME LEFT 0.0000
-0.9031 COME RIGHT 0.0000
-0.3010 CONTINUE SPEECH 0.0000
-0.3010 DOWN </s> -0.3010
-0.3010 FASTER </s> -0.3010
-0.3010 FORWARD </s> -0.3010
-0.3010 FULL SPEED -0.0969
-1.0000 GO BACK 0.0000
-1.0000 GO BACKWARD 0.0000
-1.0000 GO FORWARD 0.0000
-1.0000 GO LEFT 0.0000
-1.0000 GO RIGHT 0.0000
-0.3010 HALF SPEED -0.0969
-0.3010 HALT </s> -0.3010
-0.3010 LEFT </s> -0.3010
-1.0000 MOVE BACK 0.0000
-1.0000 MOVE BACKWARD 0.0000
-1.0000 MOVE FORWARD 0.0000
-1.0000 MOVE LEFT 0.0000
-1.0000 MOVE RIGHT 0.0000
-0.3010 PAUSE SPEECH 0.0000
-0.3010 QUARTER SPEED -0.0969
-0.3010 RIGHT </s> -0.3010
-0.6021 ROTATE LEFT 0.0000
-0.6021 ROTATE RIGHT 0.0000
-0.3010 SLOW DOWN 0.0000
-0.3010 SLOWER </s> -0.3010
-0.3010 SPEECH </s> -0.3010
-0.4260 SPEED </s> -0.3010
-0.9031 SPEED UP 0.0000
-0.3010 STOP </s> -0.3010
-0.6021 TURN LEFT 0.0000
-0.6021 TURN RIGHT 0.0000
-0.3010 UP </s> -0.3010

\3-grams:
-0.3010 <s> ABORT </s>
-0.9031 <s> COME BACKWARD
-0.9031 <s> COME FORWARD
-0.9031 <s> COME LEFT
-0.9031 <s> COME RIGHT
-0.3010 <s> CONTINUE SPEECH
-0.3010 <s> FASTER </s>
-0.3010 <s> FULL SPEED
-1.0000 <s> GO BACK
-1.0000 <s> GO BACKWARD
-1.0000 <s> GO FORWARD
-1.0000 <s> GO LEFT
-1.0000 <s> GO RIGHT
-0.3010 <s> HALF SPEED
-0.3010 <s> HALT </s>
-1.0000 <s> MOVE BACK
-1.0000 <s> MOVE BACKWARD
-1.0000 <s> MOVE FORWARD
-1.0000 <s> MOVE LEFT
-1.0000 <s> MOVE RIGHT
-0.3010 <s> PAUSE SPEECH
-0.3010 <s> QUARTER SPEED
-0.6021 <s> ROTATE LEFT
-0.6021 <s> ROTATE RIGHT
-0.3010 <s> SLOW DOWN
-0.3010 <s> SLOWER </s>
-0.3010 <s> SPEED UP
-0.3010 <s> STOP </s>
-0.6021 <s> TURN LEFT
-0.6021 <s> TURN RIGHT
-0.3010 COME BACKWARD </s>
-0.3010 COME FORWARD </s>
-0.3010 COME LEFT </s>
-0.3010 COME RIGHT </s>
-0.3010 CONTINUE SPEECH </s>
-0.3010 FULL SPEED </s>
-0.3010 GO BACK </s>
-0.3010 GO BACKWARD </s>
-0.3010 GO FORWARD </s>
-0.3010 GO LEFT </s>
-0.3010 GO RIGHT </s>
-0.3010 HALF SPEED </s>
-0.3010 MOVE BACK </s>
-0.3010 MOVE BACKWARD </s>
-0.3010 MOVE FORWARD </s>
-0.3010 MOVE LEFT </s>
-0.3010 MOVE RIGHT </s>
-0.3010 PAUSE SPEECH </s>
-0.3010 QUARTER SPEED </s>
-0.3010 ROTATE LEFT </s>
-0.3010 ROTATE RIGHT </s>
-0.3010 SLOW DOWN </s>
-0.3010 SPEED UP </s>
-0.3010 TURN LEFT </s>
-0.3010 TURN RIGHT </s>

\end\
